<?xml version="1.0"?>
<opencv_storage>
<cascade>
  <stageType>BOOST</stageType>
  <featureType>HAAR</featureType>
  <height>20</height>
  <width>20</width>
  <stageParams>
    <boostType>GAB</boostType>
    <minHitRate>9.9500000476837158e-01</minHitRate>
    <maxFalseAlarm>5.0000000000000000e-01</maxFalseAlarm>
    <weightTrimRate>9.4999999999999996e-01</weightTrimRate>
    <maxDepth>1</maxDepth>
    <maxWeakCount>100</maxWeakCount></stageParams>
  <featureParams>
    <maxCatCount>0</maxCatCount>
    <featSize>1</featSize>
    <mode>BASIC</mode></featureParams>
  <stageNum>5</stageNum>
  <stages>
    <!-- stage 0 -->
    <_>
      <maxWeakCount>4</maxWeakCount>
      <stageThreshold>-1.1233377456665039e+00</stageThreshold>
      <weakClassifiers>
        <_>
          <internalNodes>
            0 -1 6 -8.8363200426101685e-02</internalNodes>
          <leafValues>
            4.6080306172370911e-01 -9.4117647409439087e-01</leafValues></_>
        <_>
          <internalNodes>
            0 -1 30 1.1951369233429432e-03</internalNodes>
          <leafValues>
            -7.7967768907546997e-01 3.8590136170387268e-01</leafValues></_>
        <_>
          <internalNodes>
            0 -1 28 -1.5456203371286392e-02</internalNodes>
          <leafValues>
            2.4398912489414215e-01 -9.0964722633361816e-01</leafValues></_>
        <_>
          <internalNodes>
            0 -1 15 -2.6100219693034887e-03</internalNodes>
          <leafValues>
            3.5352733731269836e-01 -6.9868761301040649e-01</leafValues></_></weakClassifiers></_>
    <!-- stage 1 -->
    <_>
      <maxWeakCount>7</maxWeakCount>
      <stageThreshold>-1.1480696201324463e+00</stageThreshold>
      <weakClassifiers>
        <_>
          <internalNodes>
            0 -1 27 1.2746055144816637e-03</internalNodes>
          <leafValues>
            -6.3302749395370483e-01 3.5791757702827454e-01</leafValues></_>
        <_>
          <internalNodes>
            0 -1 23 6.9103147834539413e-03</internalNodes>
          <leafValues>
            -4.0202069282531738e-01 5.6085324287414551e-01</leafValues></_>
        <_>
          <internalNodes>
            0 -1 22 6.7450688220560551e-04</internalNodes>
          <leafValues>
            2.0504823327064514e-01 -8.9313226938247681e-01</leafValues></_>
        <_>
          <internalNodes>
            0 -1 22 -1.4587137848138809e-03</internalNodes>
          <leafValues>
            -8.3201068639755249e-01 2.5509405136108398e-01</leafValues></_>
        <_>
          <internalNodes>
            0 -1 9 -1.1917990446090698e-01</internalNodes>
          <leafValues>
            2.2500105202198029e-01 -7.4513977766036987e-01</leafValues></_>
        <_>
          <internalNodes>
            0 -1 7 3.0448627658188343e-03</internalNodes>
          <leafValues>
            -4.7498178482055664e-01 4.4837653636932373e-01</leafValues></_>
        <_>
          <internalNodes>
            0 -1 1 -1.8867768347263336e-02</internalNodes>
          <leafValues>
            8.3149605989456177e-01 -2.1594759821891785e-01</leafValues></_></weakClassifiers></_>
    <!-- stage 2 -->
    <_>
      <maxWeakCount>8</maxWeakCount>
      <stageThreshold>-1.0948132276535034e+00</stageThreshold>
      <weakClassifiers>
        <_>
          <internalNodes>
            0 -1 4 -2.2223703563213348e-03</internalNodes>
          <leafValues>
            2.5834798812866211e-01 -7.8658539056777954e-01</leafValues></_>
        <_>
          <internalNodes>
            0 -1 5 -5.8616967871785164e-03</internalNodes>
          <leafValues>
            5.6354165077209473e-01 -4.1190293431282043e-01</leafValues></_>
        <_>
          <internalNodes>
            0 -1 29 7.4862269684672356e-05</internalNodes>
          <leafValues>
            -4.8909482359886169e-01 3.6933439970016479e-01</leafValues></_>
        <_>
          <internalNodes>
            0 -1 11 -2.9545024037361145e-02</internalNodes>
          <leafValues>
            6.9823253154754639e-01 -2.9361301660537720e-01</leafValues></_>
        <_>
          <internalNodes>
            0 -1 21 -3.7104764487594366e-04</internalNodes>
          <leafValues>
            -7.7005070447921753e-01 2.9763785004615784e-01</leafValues></_>
        <_>
          <internalNodes>
            0 -1 2 -8.9376270771026611e-03</internalNodes>
          <leafValues>
            9.1235399246215820e-01 -2.7612394094467163e-01</leafValues></_>
        <_>
          <internalNodes>
            0 -1 16 -1.4838166534900665e-02</internalNodes>
          <leafValues>
            8.0586385726928711e-01 -1.6635003685951233e-01</leafValues></_>
        <_>
          <internalNodes>
            0 -1 18 7.5668457429856062e-04</internalNodes>
          <leafValues>
            2.4863277375698090e-01 -8.0833238363265991e-01</leafValues></_></weakClassifiers></_>
    <!-- stage 3 -->
    <_>
      <maxWeakCount>10</maxWeakCount>
      <stageThreshold>-1.7731554508209229e+00</stageThreshold>
      <weakClassifiers>
        <_>
          <internalNodes>
            0 -1 31 8.9350665803067386e-05</internalNodes>
          <leafValues>
            -8.1893002986907959e-01 1.3455657660961151e-01</leafValues></_>
        <_>
          <internalNodes>
            0 -1 14 -2.0717889070510864e-02</internalNodes>
          <leafValues>
            7.7451372146606445e-01 -2.6923698186874390e-01</leafValues></_>
        <_>
          <internalNodes>
            0 -1 18 -1.7341882921755314e-03</internalNodes>
          <leafValues>
            -8.5264259576797485e-01 2.3483815789222717e-01</leafValues></_>
        <_>
          <internalNodes>
            0 -1 13 -1.2782993726432323e-02</internalNodes>
          <leafValues>
            8.1411617994308472e-01 -2.5013986229896545e-01</leafValues></_>
        <_>
          <internalNodes>
            0 -1 24 -5.3621567785739899e-02</internalNodes>
          <leafValues>
            2.6319628953933716e-01 -7.1409273147583008e-01</leafValues></_>
        <_>
          <internalNodes>
            0 -1 8 -7.5990311801433563e-02</internalNodes>
          <leafValues>
            6.2279498577117920e-01 -3.1142365932464600e-01</leafValues></_>
        <_>
          <internalNodes>
            0 -1 26 -4.1640974814072251e-04</internalNodes>
          <leafValues>
            -7.8512573242187500e-01 2.3099471628665924e-01</leafValues></_>
        <_>
          <internalNodes>
            0 -1 10 -1.2404631823301315e-02</internalNodes>
          <leafValues>
            7.4980008602142334e-01 -2.6700034737586975e-01</leafValues></_>
        <_>
          <internalNodes>
            0 -1 12 -1.1132230050861835e-02</internalNodes>
          <leafValues>
            7.5596833229064941e-01 -1.6813482344150543e-01</leafValues></_>
        <_>
          <internalNodes>
            0 -1 3 -1.7784750525606796e-05</internalNodes>
          <leafValues>
            3.5461154580116272e-01 -4.4494915008544922e-01</leafValues></_></weakClassifiers></_>
    <!-- stage 4 -->
    <_>
      <maxWeakCount>7</maxWeakCount>
      <stageThreshold>-8.5989230871200562e-01</stageThreshold>
      <weakClassifiers>
        <_>
          <internalNodes>
            0 -1 0 -3.8899692893028259e-01</internalNodes>
          <leafValues>
            2.7165353298187256e-01 -6.4010280370712280e-01</leafValues></_>
        <_>
          <internalNodes>
            0 -1 32 7.6066993642598391e-05</internalNodes>
          <leafValues>
            -6.2457364797592163e-01 2.6549786329269409e-01</leafValues></_>
        <_>
          <internalNodes>
            0 -1 25 -8.4435887401923537e-04</internalNodes>
          <leafValues>
            -9.8820930719375610e-01 1.2753172218799591e-01</leafValues></_>
        <_>
          <internalNodes>
            0 -1 17 -4.5809946022927761e-03</internalNodes>
          <leafValues>
            2.8401601314544678e-01 -5.7107055187225342e-01</leafValues></_>
        <_>
          <internalNodes>
            0 -1 25 2.9757095035165548e-04</internalNodes>
          <leafValues>
            2.1220871806144714e-01 -8.3224141597747803e-01</leafValues></_>
        <_>
          <internalNodes>
            0 -1 20 -1.0758327320218086e-02</internalNodes>
          <leafValues>
            -8.3698642253875732e-01 1.3067498803138733e-01</leafValues></_>
        <_>
          <internalNodes>
            0 -1 19 2.0679503679275513e-02</internalNodes>
          <leafValues>
            -2.1695353090763092e-01 8.4578835964202881e-01</leafValues></_></weakClassifiers></_></stages>
  <features>
    <_>
      <rects>
        <_>
          0 4 20 16 -1.</_>
        <_>
          0 12 20 8 2.</_></rects>
      <tilted>0</tilted></_>
    <_>
      <rects>
        <_>
          0 13 6 6 -1.</_>
        <_>
          2 13 2 6 3.</_></rects>
      <tilted>0</tilted></_>
    <_>
      <rects>
        <_>
          0 14 2 6 -1.</_>
        <_>
          1 14 1 6 2.</_></rects>
      <tilted>0</tilted></_>
    <_>
      <rects>
        <_>
          0 18 2 1 -1.</_>
        <_>
          1 18 1 1 2.</_></rects>
      <tilted>0</tilted></_>
    <_>
      <rects>
        <_>
          0 18 18 2 -1.</_>
        <_>
          6 18 6 2 3.</_></rects>
      <tilted>0</tilted></_>
    <_>
      <rects>
        <_>
          1 2 15 1 -1.</_>
        <_>
          6 2 5 1 3.</_></rects>
      <tilted>0</tilted></_>
    <_>
      <rects>
        <_>
          1 6 19 10 -1.</_>
        <_>
          1 11 19 5 2.</_></rects>
      <tilted>0</tilted></_>
    <_>
      <rects>
        <_>
          1 9 6 9 -1.</_>
        <_>
          4 9 3 9 2.</_></rects>
      <tilted>0</tilted></_>
    <_>
      <rects>
        <_>
          2 2 18 7 -1.</_>
        <_>
          8 2 6 7 3.</_></rects>
      <tilted>0</tilted></_>
    <_>
      <rects>
        <_>
          2 6 17 10 -1.</_>
        <_>
          2 11 17 5 2.</_></rects>
      <tilted>0</tilted></_>
    <_>
      <rects>
        <_>
          2 15 11 3 -1.</_>
        <_>
          2 16 11 1 3.</_></rects>
      <tilted>0</tilted></_>
    <_>
      <rects>
        <_>
          3 5 15 3 -1.</_>
        <_>
          8 5 5 3 3.</_></rects>
      <tilted>0</tilted></_>
    <_>
      <rects>
        <_>
          3 13 15 3 -1.</_>
        <_>
          3 14 15 1 3.</_></rects>
      <tilted>0</tilted></_>
    <_>
      <rects>
        <_>
          3 14 13 3 -1.</_>
        <_>
          3 15 13 1 3.</_></rects>
      <tilted>0</tilted></_>
    <_>
      <rects>
        <_>
          4 0 10 3 -1.</_>
        <_>
          4 1 10 1 3.</_></rects>
      <tilted>0</tilted></_>
    <_>
      <rects>
        <_>
          4 17 15 3 -1.</_>
        <_>
          9 17 5 3 3.</_></rects>
      <tilted>0</tilted></_>
    <_>
      <rects>
        <_>
          5 0 8 3 -1.</_>
        <_>
          5 1 8 1 3.</_></rects>
      <tilted>0</tilted></_>
    <_>
      <rects>
        <_>
          5 17 15 2 -1.</_>
        <_>
          10 17 5 2 3.</_></rects>
      <tilted>0</tilted></_>
    <_>
      <rects>
        <_>
          7 19 6 1 -1.</_>
        <_>
          9 19 2 1 3.</_></rects>
      <tilted>0</tilted></_>
    <_>
      <rects>
        <_>
          8 0 10 3 -1.</_>
        <_>
          8 1 10 1 3.</_></rects>
      <tilted>0</tilted></_>
    <_>
      <rects>
        <_>
          8 18 9 2 -1.</_>
        <_>
          11 18 3 2 3.</_></rects>
      <tilted>0</tilted></_>
    <_>
      <rects>
        <_>
          8 19 3 1 -1.</_>
        <_>
          9 19 1 1 3.</_></rects>
      <tilted>0</tilted></_>
    <_>
      <rects>
        <_>
          8 19 6 1 -1.</_>
        <_>
          10 19 2 1 3.</_></rects>
      <tilted>0</tilted></_>
    <_>
      <rects>
        <_>
          10 3 10 1 -1.</_>
        <_>
          15 3 5 1 2.</_></rects>
      <tilted>0</tilted></_>
    <_>
      <rects>
        <_>
          10 7 9 10 -1.</_>
        <_>
          10 12 9 5 2.</_></rects>
      <tilted>0</tilted></_>
    <_>
      <rects>
        <_>
          10 19 3 1 -1.</_>
        <_>
          11 19 1 1 3.</_></rects>
      <tilted>0</tilted></_>
    <_>
      <rects>
        <_>
          10 19 6 1 -1.</_>
        <_>
          13 19 3 1 2.</_></rects>
      <tilted>0</tilted></_>
    <_>
      <rects>
        <_>
          11 18 9 2 -1.</_>
        <_>
          11 19 9 1 2.</_></rects>
      <tilted>0</tilted></_>
    <_>
      <rects>
        <_>
          12 6 5 10 -1.</_>
        <_>
          12 11 5 5 2.</_></rects>
      <tilted>0</tilted></_>
    <_>
      <rects>
        <_>
          12 18 1 2 -1.</_>
        <_>
          12 19 1 1 2.</_></rects>
      <tilted>0</tilted></_>
    <_>
      <rects>
        <_>
          14 18 6 2 -1.</_>
        <_>
          17 18 3 2 2.</_></rects>
      <tilted>0</tilted></_>
    <_>
      <rects>
        <_>
          14 19 6 1 -1.</_>
        <_>
          17 19 3 1 2.</_></rects>
      <tilted>0</tilted></_>
    <_>
      <rects>
        <_>
          18 18 2 2 -1.</_>
        <_>
          19 18 1 2 2.</_></rects>
      <tilted>0</tilted></_></features></cascade>
</opencv_storage>
