<?xml version="1.0"?>
<opencv_storage>
<cascade>
  <stageType>BOOST</stageType>
  <featureType>HAAR</featureType>
  <height>20</height>
  <width>20</width>
  <stageParams>
    <boostType>GAB</boostType>
    <minHitRate>9.9500000476837158e-01</minHitRate>
    <maxFalseAlarm>5.0000000000000000e-01</maxFalseAlarm>
    <weightTrimRate>9.4999999999999996e-01</weightTrimRate>
    <maxDepth>1</maxDepth>
    <maxWeakCount>100</maxWeakCount></stageParams>
  <featureParams>
    <maxCatCount>0</maxCatCount>
    <featSize>1</featSize>
    <mode>BASIC</mode></featureParams>
  <stageNum>5</stageNum>
  <stages>
    <!-- stage 0 -->
    <_>
      <maxWeakCount>3</maxWeakCount>
      <stageThreshold>-6.6440010070800781e-01</stageThreshold>
      <weakClassifiers>
        <_>
          <internalNodes>
            0 -1 26 -1.5759762376546860e-02</internalNodes>
          <leafValues>
            4.2973524332046509e-01 -7.9310345649719238e-01</leafValues></_>
        <_>
          <internalNodes>
            0 -1 9 2.2493595257401466e-02</internalNodes>
          <leafValues>
            -3.9598840475082397e-01 7.3023498058319092e-01</leafValues></_>
        <_>
          <internalNodes>
            0 -1 27 -1.9693193025887012e-03</internalNodes>
          <leafValues>
            5.2469176054000854e-01 -4.4901826977729797e-01</leafValues></_></weakClassifiers></_>
    <!-- stage 1 -->
    <_>
      <maxWeakCount>6</maxWeakCount>
      <stageThreshold>-8.8206321001052856e-01</stageThreshold>
      <weakClassifiers>
        <_>
          <internalNodes>
            0 -1 6 7.5135275255888700e-04</internalNodes>
          <leafValues>
            -6.7356324195861816e-01 3.9393940567970276e-01</leafValues></_>
        <_>
          <internalNodes>
            0 -1 11 3.0498567502945662e-04</internalNodes>
          <leafValues>
            2.5183713436126709e-01 -7.4614113569259644e-01</leafValues></_>
        <_>
          <internalNodes>
            0 -1 1 -1.1492982506752014e-02</internalNodes>
          <leafValues>
            9.0906894207000732e-01 -2.5558131933212280e-01</leafValues></_>
        <_>
          <internalNodes>
            0 -1 10 1.5392748173326254e-03</internalNodes>
          <leafValues>
            2.9814597964286804e-01 -8.1740111112594604e-01</leafValues></_>
        <_>
          <internalNodes>
            0 -1 25 5.0215115770697594e-03</internalNodes>
          <leafValues>
            1.6675393283367157e-01 -8.7756127119064331e-01</leafValues></_>
        <_>
          <internalNodes>
            0 -1 20 1.4804922975599766e-02</internalNodes>
          <leafValues>
            -4.6214994788169861e-01 4.4589138031005859e-01</leafValues></_></weakClassifiers></_>
    <!-- stage 2 -->
    <_>
      <maxWeakCount>6</maxWeakCount>
      <stageThreshold>-9.7548860311508179e-01</stageThreshold>
      <weakClassifiers>
        <_>
          <internalNodes>
            0 -1 16 8.8524352759122849e-04</internalNodes>
          <leafValues>
            -6.4009112119674683e-01 3.7117904424667358e-01</leafValues></_>
        <_>
          <internalNodes>
            0 -1 29 1.2370493263006210e-02</internalNodes>
          <leafValues>
            -2.6160791516304016e-01 8.2308506965637207e-01</leafValues></_>
        <_>
          <internalNodes>
            0 -1 17 1.3924131635576487e-03</internalNodes>
          <leafValues>
            2.8395158052444458e-01 -8.7794351577758789e-01</leafValues></_>
        <_>
          <internalNodes>
            0 -1 0 -4.6254612505435944e-02</internalNodes>
          <leafValues>
            5.9481859207153320e-01 -3.0508351325988770e-01</leafValues></_>
        <_>
          <internalNodes>
            0 -1 23 -6.9121795240789652e-04</internalNodes>
          <leafValues>
            -9.3171733617782593e-01 1.9785559177398682e-01</leafValues></_>
        <_>
          <internalNodes>
            0 -1 15 -2.4034118279814720e-02</internalNodes>
          <leafValues>
            8.1603765487670898e-01 -2.5051319599151611e-01</leafValues></_></weakClassifiers></_>
    <!-- stage 3 -->
    <_>
      <maxWeakCount>10</maxWeakCount>
      <stageThreshold>-9.7641724348068237e-01</stageThreshold>
      <weakClassifiers>
        <_>
          <internalNodes>
            0 -1 8 1.7461193783674389e-04</internalNodes>
          <leafValues>
            -6.3481950759887695e-01 4.4131454825401306e-01</leafValues></_>
        <_>
          <internalNodes>
            0 -1 2 -2.5082780048251152e-02</internalNodes>
          <leafValues>
            5.4962158203125000e-01 -3.7076070904731750e-01</leafValues></_>
        <_>
          <internalNodes>
            0 -1 18 -2.6873245835304260e-02</internalNodes>
          <leafValues>
            9.1588681936264038e-01 -1.7176498472690582e-01</leafValues></_>
        <_>
          <internalNodes>
            0 -1 19 -8.3890408277511597e-03</internalNodes>
          <leafValues>
            7.6817446947097778e-01 -1.9717954099178314e-01</leafValues></_>
        <_>
          <internalNodes>
            0 -1 30 -1.2465157546103001e-02</internalNodes>
          <leafValues>
            3.3386385440826416e-01 -5.4325819015502930e-01</leafValues></_>
        <_>
          <internalNodes>
            0 -1 21 -1.9495575688779354e-03</internalNodes>
          <leafValues>
            -8.6960309743881226e-01 2.1955494582653046e-01</leafValues></_>
        <_>
          <internalNodes>
            0 -1 31 5.8752149343490601e-03</internalNodes>
          <leafValues>
            -3.1466090679168701e-01 6.4982479810714722e-01</leafValues></_>
        <_>
          <internalNodes>
            0 -1 12 -1.5375651419162750e-02</internalNodes>
          <leafValues>
            7.4828648567199707e-01 -2.1469913423061371e-01</leafValues></_>
        <_>
          <internalNodes>
            0 -1 4 -2.5398883968591690e-02</internalNodes>
          <leafValues>
            7.6569378376007080e-01 -2.2770909965038300e-01</leafValues></_>
        <_>
          <internalNodes>
            0 -1 3 -1.0353336110711098e-02</internalNodes>
          <leafValues>
            6.0175788402557373e-01 -2.6634025573730469e-01</leafValues></_></weakClassifiers></_>
    <!-- stage 4 -->
    <_>
      <maxWeakCount>7</maxWeakCount>
      <stageThreshold>-1.2273586988449097e+00</stageThreshold>
      <weakClassifiers>
        <_>
          <internalNodes>
            0 -1 14 1.9537828862667084e-02</internalNodes>
          <leafValues>
            -3.9047619700431824e-01 5.0561797618865967e-01</leafValues></_>
        <_>
          <internalNodes>
            0 -1 22 4.2445650324225426e-03</internalNodes>
          <leafValues>
            2.2393804788589478e-01 -8.2759350538253784e-01</leafValues></_>
        <_>
          <internalNodes>
            0 -1 5 -5.2077665925025940e-02</internalNodes>
          <leafValues>
            3.0874222517013550e-01 -5.1021087169647217e-01</leafValues></_>
        <_>
          <internalNodes>
            0 -1 7 7.7021936886012554e-04</internalNodes>
          <leafValues>
            1.8580827116966248e-01 -8.6262124776840210e-01</leafValues></_>
        <_>
          <internalNodes>
            0 -1 28 3.6866293521597981e-04</internalNodes>
          <leafValues>
            -5.5826002359390259e-01 3.1386238336563110e-01</leafValues></_>
        <_>
          <internalNodes>
            0 -1 13 -1.8099475651979446e-02</internalNodes>
          <leafValues>
            7.7505248785018921e-01 -2.4290454387664795e-01</leafValues></_>
        <_>
          <internalNodes>
            0 -1 24 -3.5038541536778212e-03</internalNodes>
          <leafValues>
            -8.7724715471267700e-01 2.2018395364284515e-01</leafValues></_></weakClassifiers></_></stages>
  <features>
    <_>
      <rects>
        <_>
          0 0 12 16 -1.</_>
        <_>
          4 0 4 16 3.</_></rects>
      <tilted>0</tilted></_>
    <_>
      <rects>
        <_>
          0 2 2 14 -1.</_>
        <_>
          1 2 1 14 2.</_></rects>
      <tilted>0</tilted></_>
    <_>
      <rects>
        <_>
          0 2 9 12 -1.</_>
        <_>
          3 2 3 12 3.</_></rects>
      <tilted>0</tilted></_>
    <_>
      <rects>
        <_>
          0 5 4 14 -1.</_>
        <_>
          0 5 2 7 2.</_>
        <_>
          2 12 2 7 2.</_></rects>
      <tilted>0</tilted></_>
    <_>
      <rects>
        <_>
          0 5 15 3 -1.</_>
        <_>
          0 6 15 1 3.</_></rects>
      <tilted>0</tilted></_>
    <_>
      <rects>
        <_>
          0 8 9 10 -1.</_>
        <_>
          0 13 9 5 2.</_></rects>
      <tilted>0</tilted></_>
    <_>
      <rects>
        <_>
          0 18 11 2 -1.</_>
        <_>
          0 19 11 1 2.</_></rects>
      <tilted>0</tilted></_>
    <_>
      <rects>
        <_>
          0 19 4 1 -1.</_>
        <_>
          2 19 2 1 2.</_></rects>
      <tilted>0</tilted></_>
    <_>
      <rects>
        <_>
          1 18 1 2 -1.</_>
        <_>
          1 19 1 1 2.</_></rects>
      <tilted>0</tilted></_>
    <_>
      <rects>
        <_>
          1 18 19 2 -1.</_>
        <_>
          1 19 19 1 2.</_></rects>
      <tilted>0</tilted></_>
    <_>
      <rects>
        <_>
          1 19 9 1 -1.</_>
        <_>
          4 19 3 1 3.</_></rects>
      <tilted>0</tilted></_>
    <_>
      <rects>
        <_>
          1 19 18 1 -1.</_>
        <_>
          7 19 6 1 3.</_></rects>
      <tilted>0</tilted></_>
    <_>
      <rects>
        <_>
          2 4 17 3 -1.</_>
        <_>
          2 5 17 1 3.</_></rects>
      <tilted>0</tilted></_>
    <_>
      <rects>
        <_>
          2 15 13 3 -1.</_>
        <_>
          2 16 13 1 3.</_></rects>
      <tilted>0</tilted></_>
    <_>
      <rects>
        <_>
          2 18 16 2 -1.</_>
        <_>
          2 19 16 1 2.</_></rects>
      <tilted>0</tilted></_>
    <_>
      <rects>
        <_>
          3 5 12 3 -1.</_>
        <_>
          3 6 12 1 3.</_></rects>
      <tilted>0</tilted></_>
    <_>
      <rects>
        <_>
          5 18 9 2 -1.</_>
        <_>
          5 19 9 1 2.</_></rects>
      <tilted>0</tilted></_>
    <_>
      <rects>
        <_>
          5 19 9 1 -1.</_>
        <_>
          8 19 3 1 3.</_></rects>
      <tilted>0</tilted></_>
    <_>
      <rects>
        <_>
          6 0 11 3 -1.</_>
        <_>
          6 1 11 1 3.</_></rects>
      <tilted>0</tilted></_>
    <_>
      <rects>
        <_>
          7 1 4 3 -1.</_>
        <_>
          7 2 4 1 3.</_></rects>
      <tilted>0</tilted></_>
    <_>
      <rects>
        <_>
          7 3 4 12 -1.</_>
        <_>
          7 7 4 4 3.</_></rects>
      <tilted>0</tilted></_>
    <_>
      <rects>
        <_>
          7 13 4 2 -1.</_>
        <_>
          9 13 2 2 2.</_></rects>
      <tilted>0</tilted></_>
    <_>
      <rects>
        <_>
          7 13 4 5 -1.</_>
        <_>
          9 13 2 5 2.</_></rects>
      <tilted>0</tilted></_>
    <_>
      <rects>
        <_>
          7 18 2 2 -1.</_>
        <_>
          8 18 1 2 2.</_></rects>
      <tilted>0</tilted></_>
    <_>
      <rects>
        <_>
          8 18 6 2 -1.</_>
        <_>
          10 18 2 2 3.</_></rects>
      <tilted>0</tilted></_>
    <_>
      <rects>
        <_>
          9 12 4 8 -1.</_>
        <_>
          11 12 2 8 2.</_></rects>
      <tilted>0</tilted></_>
    <_>
      <rects>
        <_>
          12 8 7 8 -1.</_>
        <_>
          12 12 7 4 2.</_></rects>
      <tilted>0</tilted></_>
    <_>
      <rects>
        <_>
          13 0 1 8 -1.</_>
        <_>
          13 4 1 4 2.</_></rects>
      <tilted>0</tilted></_>
    <_>
      <rects>
        <_>
          14 18 6 2 -1.</_>
        <_>
          17 18 3 2 2.</_></rects>
      <tilted>0</tilted></_>
    <_>
      <rects>
        <_>
          16 8 4 5 -1.</_>
        <_>
          18 8 2 5 2.</_></rects>
      <tilted>0</tilted></_>
    <_>
      <rects>
        <_>
          16 9 4 10 -1.</_>
        <_>
          16 14 4 5 2.</_></rects>
      <tilted>0</tilted></_>
    <_>
      <rects>
        <_>
          16 10 4 4 -1.</_>
        <_>
          18 10 2 4 2.</_></rects>
      <tilted>0</tilted></_></features></cascade>
</opencv_storage>
