<?xml version="1.0"?>
<opencv_storage>
<stage1>
  <maxWeakCount>5</maxWeakCount>
  <stageThreshold>-5.0512760877609253e-01</stageThreshold>
  <weakClassifiers>
    <_>
      <internalNodes>
        0 -1 78016 7.1628568693995476e-03</internalNodes>
      <leafValues>
        -6.8367344141006470e-01 7.1428573131561279e-01</leafValues></_>
    <_>
      <internalNodes>
        0 -1 5777 -9.3565881252288818e-03</internalNodes>
      <leafValues>
        5.5432623624801636e-01 -5.6145834922790527e-01</leafValues></_>
    <_>
      <internalNodes>
        0 -1 76166 -1.0144935920834541e-02</internalNodes>
      <leafValues>
        9.0359699726104736e-01 -3.9221999049186707e-01</leafValues></_>
    <_>
      <internalNodes>
        0 -1 61806 -9.4472244381904602e-04</internalNodes>
      <leafValues>
        -8.1700241565704346e-01 4.3878564238548279e-01</leafValues></_>
    <_>
      <internalNodes>
        0 -1 6083 -4.0116412565112114e-03</internalNodes>
      <leafValues>
        7.2704482078552246e-01 -4.2234599590301514e-01</leafValues></_></weakClassifiers></stage1>
</opencv_storage>
